digraph Tree {
node [shape=box] ;
0 [label="X[8] <= 0.5\ngini = 0.486\nsamples = 320\nvalue = [187, 133]"] ;
1 [label="X[4] <= 105.5\ngini = 0.439\nsamples = 255\nvalue = [172, 83]"] ;
0 -> 1 [labeldistance=2.5, labelangle=45, headlabel="True"] ;
2 [label="X[0] <= 129.5\ngini = 0.491\nsamples = 88\nvalue = [38, 50]"] ;
1 -> 2 ;
3 [label="X[4] <= 92.5\ngini = 0.497\nsamples = 69\nvalue = [37, 32]"] ;
2 -> 3 ;
4 [label="X[9] <= 0.5\ngini = 0.438\nsamples = 37\nvalue = [12, 25]"] ;
3 -> 4 ;
5 [label="X[1] <= 85.0\ngini = 0.473\nsamples = 13\nvalue = [8, 5]"] ;
4 -> 5 ;
6 [label="gini = 0.219\nsamples = 8\nvalue = [7, 1]"] ;
5 -> 6 ;
7 [label="gini = 0.32\nsamples = 5\nvalue = [1, 4]"] ;
5 -> 7 ;
8 [label="X[5] <= 64.0\ngini = 0.278\nsamples = 24\nvalue = [4, 20]"] ;
4 -> 8 ;
9 [label="gini = 0.111\nsamples = 17\nvalue = [1, 16]"] ;
8 -> 9 ;
10 [label="gini = 0.49\nsamples = 7\nvalue = [3, 4]"] ;
8 -> 10 ;
11 [label="X[5] <= 29.0\ngini = 0.342\nsamples = 32\nvalue = [25, 7]"] ;
3 -> 11 ;
12 [label="gini = 0.0\nsamples = 2\nvalue = [0, 2]"] ;
11 -> 12 ;
13 [label="X[3] <= 177.0\ngini = 0.278\nsamples = 30\nvalue = [25, 5]"] ;
11 -> 13 ;
14 [label="gini = 0.49\nsamples = 7\nvalue = [4, 3]"] ;
13 -> 14 ;
15 [label="gini = 0.159\nsamples = 23\nvalue = [21, 2]"] ;
13 -> 15 ;
16 [label="X[1] <= 29.5\ngini = 0.1\nsamples = 19\nvalue = [1, 18]"] ;
2 -> 16 ;
17 [label="X[1] <= 28.0\ngini = 0.444\nsamples = 3\nvalue = [1, 2]"] ;
16 -> 17 ;
18 [label="gini = 0.0\nsamples = 2\nvalue = [0, 2]"] ;
17 -> 18 ;
19 [label="gini = 0.0\nsamples = 1\nvalue = [1, 0]"] ;
17 -> 19 ;
20 [label="gini = 0.0\nsamples = 16\nvalue = [0, 16]"] ;
16 -> 20 ;
21 [label="X[2] <= 13.5\ngini = 0.317\nsamples = 167\nvalue = [134, 33]"] ;
1 -> 21 ;
22 [label="X[0] <= 124.5\ngini = 0.252\nsamples = 142\nvalue = [121, 21]"] ;
21 -> 22 ;
23 [label="gini = 0.0\nsamples = 47\nvalue = [47, 0]"] ;
22 -> 23 ;
24 [label="X[4] <= 123.0\ngini = 0.344\nsamples = 95\nvalue = [74, 21]"] ;
22 -> 24 ;
25 [label="X[2] <= 5.0\ngini = 0.49\nsamples = 35\nvalue = [20, 15]"] ;
24 -> 25 ;
26 [label="gini = 0.375\nsamples = 24\nvalue = [18, 6]"] ;
25 -> 26 ;
27 [label="gini = 0.298\nsamples = 11\nvalue = [2, 9]"] ;
25 -> 27 ;
28 [label="X[0] <= 147.5\ngini = 0.18\nsamples = 60\nvalue = [54, 6]"] ;
24 -> 28 ;
29 [label="gini = 0.044\nsamples = 44\nvalue = [43, 1]"] ;
28 -> 29 ;
30 [label="gini = 0.43\nsamples = 16\nvalue = [11, 5]"] ;
28 -> 30 ;
31 [label="X[5] <= 44.5\ngini = 0.499\nsamples = 25\nvalue = [13, 12]"] ;
21 -> 31 ;
32 [label="X[11] <= 0.5\ngini = 0.32\nsamples = 10\nvalue = [2, 8]"] ;
31 -> 32 ;
33 [label="gini = 0.0\nsamples = 1\nvalue = [1, 0]"] ;
32 -> 33 ;
34 [label="X[4] <= 119.5\ngini = 0.198\nsamples = 9\nvalue = [1, 8]"] ;
32 -> 34 ;
35 [label="gini = 0.5\nsamples = 2\nvalue = [1, 1]"] ;
34 -> 35 ;
36 [label="gini = 0.0\nsamples = 7\nvalue = [0, 7]"] ;
34 -> 36 ;
37 [label="X[0] <= 139.0\ngini = 0.391\nsamples = 15\nvalue = [11, 4]"] ;
31 -> 37 ;
38 [label="X[5] <= 79.5\ngini = 0.165\nsamples = 11\nvalue = [10, 1]"] ;
37 -> 38 ;
39 [label="gini = 0.0\nsamples = 9\nvalue = [9, 0]"] ;
38 -> 39 ;
40 [label="gini = 0.5\nsamples = 2\nvalue = [1, 1]"] ;
38 -> 40 ;
41 [label="X[6] <= 15.5\ngini = 0.375\nsamples = 4\nvalue = [1, 3]"] ;
37 -> 41 ;
42 [label="gini = 0.0\nsamples = 3\nvalue = [0, 3]"] ;
41 -> 42 ;
43 [label="gini = 0.0\nsamples = 1\nvalue = [1, 0]"] ;
41 -> 43 ;
44 [label="X[4] <= 142.5\ngini = 0.355\nsamples = 65\nvalue = [15, 50]"] ;
0 -> 44 [labeldistance=2.5, labelangle=-45, headlabel="False"] ;
45 [label="X[12] <= 0.5\ngini = 0.222\nsamples = 55\nvalue = [7, 48]"] ;
44 -> 45 ;
46 [label="X[1] <= 98.5\ngini = 0.046\nsamples = 42\nvalue = [1, 41]"] ;
45 -> 46 ;
47 [label="gini = 0.0\nsamples = 35\nvalue = [0, 35]"] ;
46 -> 47 ;
48 [label="X[1] <= 100.5\ngini = 0.245\nsamples = 7\nvalue = [1, 6]"] ;
46 -> 48 ;
49 [label="gini = 0.0\nsamples = 1\nvalue = [1, 0]"] ;
48 -> 49 ;
50 [label="gini = 0.0\nsamples = 6\nvalue = [0, 6]"] ;
48 -> 50 ;
51 [label="X[6] <= 12.5\ngini = 0.497\nsamples = 13\nvalue = [6, 7]"] ;
45 -> 51 ;
52 [label="gini = 0.0\nsamples = 4\nvalue = [0, 4]"] ;
51 -> 52 ;
53 [label="X[1] <= 51.0\ngini = 0.444\nsamples = 9\nvalue = [6, 3]"] ;
51 -> 53 ;
54 [label="gini = 0.0\nsamples = 5\nvalue = [5, 0]"] ;
53 -> 54 ;
55 [label="X[6] <= 13.5\ngini = 0.375\nsamples = 4\nvalue = [1, 3]"] ;
53 -> 55 ;
56 [label="gini = 0.0\nsamples = 1\nvalue = [1, 0]"] ;
55 -> 56 ;
57 [label="gini = 0.0\nsamples = 3\nvalue = [0, 3]"] ;
55 -> 57 ;
58 [label="X[3] <= 379.5\ngini = 0.32\nsamples = 10\nvalue = [8, 2]"] ;
44 -> 58 ;
59 [label="X[11] <= 0.5\ngini = 0.198\nsamples = 9\nvalue = [8, 1]"] ;
58 -> 59 ;
60 [label="X[4] <= 153.0\ngini = 0.5\nsamples = 2\nvalue = [1, 1]"] ;
59 -> 60 ;
61 [label="gini = 0.0\nsamples = 1\nvalue = [1, 0]"] ;
60 -> 61 ;
62 [label="gini = 0.0\nsamples = 1\nvalue = [0, 1]"] ;
60 -> 62 ;
63 [label="gini = 0.0\nsamples = 7\nvalue = [7, 0]"] ;
59 -> 63 ;
64 [label="gini = 0.0\nsamples = 1\nvalue = [0, 1]"] ;
58 -> 64 ;
}
